<?xml version="1.0"?>
<opencv_storage>
<cascade>
  <stageType>BOOST</stageType>
  <featureType>HAAR</featureType>
  <height>24</height>
  <width>72</width>
  <stageParams>
    <boostType>GAB</boostType>
    <minHitRate>9.9500000476837158e-01</minHitRate>
    <maxFalseAlarm>5.0000000000000000e-01</maxFalseAlarm>
    <weightTrimRate>9.4999998807907104e-01</weightTrimRate>
    <maxDepth>1</maxDepth>
    <maxWeakCount>100</maxWeakCount></stageParams>
  <featureParams>
    <maxCatCount>0</maxCatCount>
    <featSize>1</featSize>
    <mode>BASIC</mode></featureParams>
  <stageNum>20</stageNum>
  <stages>
    <!-- stage 0 -->
    <_>
      <maxWeakCount>7</maxWeakCount>
      <stageThreshold>-9.5051616430282593e-01</stageThreshold>
      <weakClassifiers>
        <_>
          <internalNodes>
            0 -1 95 -5.1902383565902710e-02</internalNodes>
          <leafValues>
            8.6549705266952515e-01 -4.1518577933311462e-01</leafValues></_>
        <_>
          <internalNodes>
            0 -1 136 1.8234409391880035e-02</internalNodes>
          <leafValues>
            -4.1698628664016724e-01 6.1571258306503296e-01</leafValues></_>
        <_>
          <internalNodes>
            0 -1 193 1.2310564517974854e-02</internalNodes>
          <leafValues>
            -6.0815954208374023e-01 4.3400087952613831e-01</leafValues></_>
        <_>
          <internalNodes>
            0 -1 113 -2.7416860684752464e-02</internalNodes>
          <leafValues>
            8.6391884088516235e-01 -2.9355224967002869e-01</leafValues></_>
        <_>
          <internalNodes>
            0 -1 207 5.9587077703326941e-04</internalNodes>
          <leafValues>
            3.0834671854972839e-01 -8.8287967443466187e-01</leafValues></_>
        <_>
          <internalNodes>
            0 -1 131 -2.6273068785667419e-01</internalNodes>
          <leafValues>
            9.7603696584701538e-01 -2.4118389189243317e-01</leafValues></_>
        <_>
          <internalNodes>
            0 -1 8 -9.1014523059129715e-03</internalNodes>
          <leafValues>
            8.6527085304260254e-01 -2.0480357110500336e-01</leafValues></_></weakClassifiers></_>
    <!-- stage 1 -->
    <_>
      <maxWeakCount>7</maxWeakCount>
      <stageThreshold>-8.6416542530059814e-01</stageThreshold>
      <weakClassifiers>
        <_>
          <internalNodes>
            0 -1 93 3.6617659032344818e-02</internalNodes>
          <leafValues>
            -3.9291736483573914e-01 7.3913043737411499e-01</leafValues></_>
        <_>
          <internalNodes>
            0 -1 151 -2.1550700068473816e-02</internalNodes>
          <leafValues>
            5.7156711816787720e-01 -3.1025236845016479e-01</leafValues></_>
        <_>
          <internalNodes>
            0 -1 101 -5.4241451434791088e-03</internalNodes>
          <leafValues>
            9.0311270952224731e-01 -1.9654592871665955e-01</leafValues></_>
        <_>
          <internalNodes>
            0 -1 74 -2.4033706635236740e-02</internalNodes>
          <leafValues>
            7.7643531560897827e-01 -1.8667069077491760e-01</leafValues></_>
        <_>
          <internalNodes>
            0 -1 47 9.1137234121561050e-03</internalNodes>
          <leafValues>
            -2.0074856281280518e-01 8.7652158737182617e-01</leafValues></_>
        <_>
          <internalNodes>
            0 -1 76 -3.6122515797615051e-02</internalNodes>
          <leafValues>
            6.2196856737136841e-01 -2.7271673083305359e-01</leafValues></_>
        <_>
          <internalNodes>
            0 -1 80 -8.4863658994436264e-03</internalNodes>
          <leafValues>
            8.3435350656509399e-01 -1.8613326549530029e-01</leafValues></_></weakClassifiers></_>
    <!-- stage 2 -->
    <_>
      <maxWeakCount>8</maxWeakCount>
      <stageThreshold>-5.9620475769042969e-01</stageThreshold>
      <weakClassifiers>
        <_>
          <internalNodes>
            0 -1 88 -6.8348072469234467e-02</internalNodes>
          <leafValues>
            6.5891474485397339e-01 -3.7630662322044373e-01</leafValues></_>
        <_>
          <internalNodes>
            0 -1 61 -2.4665594100952148e-01</internalNodes>
          <leafValues>
            7.7210432291030884e-01 -2.2330942749977112e-01</leafValues></_>
        <_>
          <internalNodes>
            0 -1 175 -1.5499801374971867e-03</internalNodes>
          <leafValues>
            -5.5789160728454590e-01 3.1087186932563782e-01</leafValues></_>
        <_>
          <internalNodes>
            0 -1 92 -1.3037963770329952e-02</internalNodes>
          <leafValues>
            8.2484507560729980e-01 -2.1594363451004028e-01</leafValues></_>
        <_>
          <internalNodes>
            0 -1 216 1.5730370068922639e-03</internalNodes>
          <leafValues>
            2.3843196034431458e-01 -7.9689544439315796e-01</leafValues></_>
        <_>
          <internalNodes>
            0 -1 234 1.1736774817109108e-02</internalNodes>
          <leafValues>
            -1.7746017873287201e-01 9.1344177722930908e-01</leafValues></_>
        <_>
          <internalNodes>
            0 -1 12 4.3350877240300179e-03</internalNodes>
          <leafValues>
            2.3693276941776276e-01 -7.7220928668975830e-01</leafValues></_>
        <_>
          <internalNodes>
            0 -1 144 3.0934927053749561e-03</internalNodes>
          <leafValues>
            -2.3859767615795135e-01 6.4590597152709961e-01</leafValues></_></weakClassifiers></_>
    <!-- stage 3 -->
    <_>
      <maxWeakCount>7</maxWeakCount>
      <stageThreshold>-6.4620512723922729e-01</stageThreshold>
      <weakClassifiers>
        <_>
          <internalNodes>
            0 -1 30 1.2949086958542466e-03</internalNodes>
          <leafValues>
            2.3425692319869995e-01 -8.8023954629898071e-01</leafValues></_>
        <_>
          <internalNodes>
            0 -1 227 -5.2011455409228802e-04</internalNodes>
          <leafValues>
            -8.1543487310409546e-01 1.6038751602172852e-01</leafValues></_>
        <_>
          <internalNodes>
            0 -1 230 -7.1007234510034323e-04</internalNodes>
          <leafValues>
            -6.8858271837234497e-01 2.3233729600906372e-01</leafValues></_>
        <_>
          <internalNodes>
            0 -1 206 -8.5714517626911402e-04</internalNodes>
          <leafValues>
            -6.7601019144058228e-01 2.1147203445434570e-01</leafValues></_>
        <_>
          <internalNodes>
            0 -1 13 -1.5274106990545988e-03</internalNodes>
          <leafValues>
            -7.8588724136352539e-01 1.8230527639389038e-01</leafValues></_>
        <_>
          <internalNodes>
            0 -1 237 -2.6635001995600760e-04</internalNodes>
          <leafValues>
            -7.8293079137802124e-01 1.8845719099044800e-01</leafValues></_>
        <_>
          <internalNodes>
            0 -1 211 2.9298718436621130e-04</internalNodes>
          <leafValues>
            1.7999505996704102e-01 -7.0725715160369873e-01</leafValues></_></weakClassifiers></_>
    <!-- stage 4 -->
    <_>
      <maxWeakCount>8</maxWeakCount>
      <stageThreshold>-5.3134459257125854e-01</stageThreshold>
      <weakClassifiers>
        <_>
          <internalNodes>
            0 -1 75 1.1715028434991837e-01</internalNodes>
          <leafValues>
            -2.4731183052062988e-01 6.4516127109527588e-01</leafValues></_>
        <_>
          <internalNodes>
            0 -1 137 8.3439592272043228e-03</internalNodes>
          <leafValues>
            -1.5116734802722931e-01 8.5543477535247803e-01</leafValues></_>
        <_>
          <internalNodes>
            0 -1 38 7.1923928335309029e-03</internalNodes>
          <leafValues>
            2.5359782576560974e-01 -6.5595406293869019e-01</leafValues></_>
        <_>
          <internalNodes>
            0 -1 199 -3.7142725195735693e-03</internalNodes>
          <leafValues>
            -7.1710830926895142e-01 1.7796292901039124e-01</leafValues></_>
        <_>
          <internalNodes>
            0 -1 23 -1.1998715344816446e-03</internalNodes>
          <leafValues>
            -8.0558401346206665e-01 1.6415451467037201e-01</leafValues></_>
        <_>
          <internalNodes>
            0 -1 149 2.1267738193273544e-03</internalNodes>
          <leafValues>
            2.0078450441360474e-01 -6.4487892389297485e-01</leafValues></_>
        <_>
          <internalNodes>
            0 -1 148 6.1277300119400024e-03</internalNodes>
          <leafValues>
            -1.8773284554481506e-01 9.2060744762420654e-01</leafValues></_>
        <_>
          <internalNodes>
            0 -1 117 4.6632932499051094e-03</internalNodes>
          <leafValues>
            2.4518494307994843e-01 -6.8729525804519653e-01</leafValues></_></weakClassifiers></_>
    <!-- stage 5 -->
    <_>
      <maxWeakCount>11</maxWeakCount>
      <stageThreshold>-8.1580454111099243e-01</stageThreshold>
      <weakClassifiers>
        <_>
          <internalNodes>
            0 -1 245 2.1060062572360039e-03</internalNodes>
          <leafValues>
            2.0000000298023224e-01 -8.8652479648590088e-01</leafValues></_>
        <_>
          <internalNodes>
            0 -1 178 2.4492995813488960e-02</internalNodes>
          <leafValues>
            -3.9357852935791016e-01 3.3794397115707397e-01</leafValues></_>
        <_>
          <internalNodes>
            0 -1 50 -7.2340639308094978e-03</internalNodes>
          <leafValues>
            7.1821570396423340e-01 -1.8064141273498535e-01</leafValues></_>
        <_>
          <internalNodes>
            0 -1 31 7.5759580358862877e-03</internalNodes>
          <leafValues>
            1.8174038827419281e-01 -6.5701937675476074e-01</leafValues></_>
        <_>
          <internalNodes>
            0 -1 18 -2.7816109359264374e-03</internalNodes>
          <leafValues>
            -6.5782636404037476e-01 1.7711244523525238e-01</leafValues></_>
        <_>
          <internalNodes>
            0 -1 41 -1.1684294044971466e-01</internalNodes>
          <leafValues>
            5.0244253873825073e-01 -2.5185385346412659e-01</leafValues></_>
        <_>
          <internalNodes>
            0 -1 85 5.6466022506356239e-03</internalNodes>
          <leafValues>
            -2.3919536173343658e-01 6.4679843187332153e-01</leafValues></_>
        <_>
          <internalNodes>
            0 -1 89 1.2372301891446114e-02</internalNodes>
          <leafValues>
            -1.2251278012990952e-01 7.8781116008758545e-01</leafValues></_>
        <_>
          <internalNodes>
            0 -1 140 -4.3735750950872898e-03</internalNodes>
          <leafValues>
            5.7700222730636597e-01 -2.0380029082298279e-01</leafValues></_>
        <_>
          <internalNodes>
            0 -1 183 -1.2066633207723498e-03</internalNodes>
          <leafValues>
            -8.0272430181503296e-01 1.9505204260349274e-01</leafValues></_>
        <_>
          <internalNodes>
            0 -1 17 1.2536155991256237e-03</internalNodes>
          <leafValues>
            8.8126689195632935e-02 -7.6640307903289795e-01</leafValues></_></weakClassifiers></_>
    <!-- stage 6 -->
    <_>
      <maxWeakCount>12</maxWeakCount>
      <stageThreshold>-7.0300608873367310e-01</stageThreshold>
      <weakClassifiers>
        <_>
          <internalNodes>
            0 -1 124 1.1609837412834167e-02</internalNodes>
          <leafValues>
            -3.5545024275779724e-01 3.5064935684204102e-01</leafValues></_>
        <_>
          <internalNodes>
            0 -1 108 -4.2327530682086945e-03</internalNodes>
          <leafValues>
            7.0013475418090820e-01 -1.8295368552207947e-01</leafValues></_>
        <_>
          <internalNodes>
            0 -1 119 5.4421164095401764e-03</internalNodes>
          <leafValues>
            -1.3616709411144257e-01 7.9729628562927246e-01</leafValues></_>
        <_>
          <internalNodes>
            0 -1 3 -2.6995814405381680e-03</internalNodes>
          <leafValues>
            -6.2437742948532104e-01 1.9006948173046112e-01</leafValues></_>
        <_>
          <internalNodes>
            0 -1 147 7.6792478561401367e-02</internalNodes>
          <leafValues>
            2.0892702043056488e-01 -7.8497588634490967e-01</leafValues></_>
        <_>
          <internalNodes>
            0 -1 84 -1.5375271439552307e-02</internalNodes>
          <leafValues>
            7.3954409360885620e-01 -2.3477827012538910e-01</leafValues></_>
        <_>
          <internalNodes>
            0 -1 70 5.8597214519977570e-02</internalNodes>
          <leafValues>
            -3.5241308808326721e-01 4.6124878525733948e-01</leafValues></_>
        <_>
          <internalNodes>
            0 -1 39 5.0831362605094910e-03</internalNodes>
          <leafValues>
            1.4844764769077301e-01 -7.4136132001876831e-01</leafValues></_>
        <_>
          <internalNodes>
            0 -1 90 -1.1165546253323555e-02</internalNodes>
          <leafValues>
            7.8998905420303345e-01 -1.7736010253429413e-01</leafValues></_>
        <_>
          <internalNodes>
            0 -1 201 -2.4562627077102661e-02</internalNodes>
          <leafValues>
            3.6500790715217590e-01 -3.2596930861473083e-01</leafValues></_>
        <_>
          <internalNodes>
            0 -1 37 3.2604106236249208e-03</internalNodes>
          <leafValues>
            -1.7415602505207062e-01 7.5905185937881470e-01</leafValues></_>
        <_>
          <internalNodes>
            0 -1 7 -5.3974492475390434e-03</internalNodes>
          <leafValues>
            -6.9606292247772217e-01 1.8152970075607300e-01</leafValues></_></weakClassifiers></_>
    <!-- stage 7 -->
    <_>
      <maxWeakCount>13</maxWeakCount>
      <stageThreshold>-7.1400004625320435e-01</stageThreshold>
      <weakClassifiers>
        <_>
          <internalNodes>
            0 -1 19 -8.5757011547684669e-03</internalNodes>
          <leafValues>
            6.8604654073715210e-01 -1.0012674331665039e-01</leafValues></_>
        <_>
          <internalNodes>
            0 -1 105 -2.5343131273984909e-03</internalNodes>
          <leafValues>
            -4.8938244581222534e-01 1.9788002967834473e-01</leafValues></_>
        <_>
          <internalNodes>
            0 -1 126 4.0057133883237839e-03</internalNodes>
          <leafValues>
            1.6597221791744232e-01 -5.9114658832550049e-01</leafValues></_>
        <_>
          <internalNodes>
            0 -1 161 -7.9559329897165298e-03</internalNodes>
          <leafValues>
            6.8198210000991821e-01 -1.4738483726978302e-01</leafValues></_>
        <_>
          <internalNodes>
            0 -1 136 1.8286906182765961e-02</internalNodes>
          <leafValues>
            -4.6578556299209595e-01 2.4843330681324005e-01</leafValues></_>
        <_>
          <internalNodes>
            0 -1 28 9.2979217879474163e-04</internalNodes>
          <leafValues>
            1.7292046546936035e-01 -6.5041428804397583e-01</leafValues></_>
        <_>
          <internalNodes>
            0 -1 132 1.2522767297923565e-02</internalNodes>
          <leafValues>
            -1.1267331242561340e-01 9.1448509693145752e-01</leafValues></_>
        <_>
          <internalNodes>
            0 -1 59 -1.5796873718500137e-02</internalNodes>
          <leafValues>
            -6.4995783567428589e-01 1.5940600633621216e-01</leafValues></_>
        <_>
          <internalNodes>
            0 -1 99 3.8757100701332092e-03</internalNodes>
          <leafValues>
            1.5884411334991455e-01 -6.4507520198822021e-01</leafValues></_>
        <_>
          <internalNodes>
            0 -1 152 -6.2618600204586983e-03</internalNodes>
          <leafValues>
            6.3774663209915161e-01 -1.6232329607009888e-01</leafValues></_>
        <_>
          <internalNodes>
            0 -1 231 3.3871787600219250e-03</internalNodes>
          <leafValues>
            1.3878613710403442e-01 -9.0358299016952515e-01</leafValues></_>
        <_>
          <internalNodes>
            0 -1 243 -1.9921083003282547e-03</internalNodes>
          <leafValues>
            -7.5625061988830566e-01 8.3819270133972168e-02</leafValues></_>
        <_>
          <internalNodes>
            0 -1 29 3.3040815033018589e-03</internalNodes>
          <leafValues>
            1.1514519900083542e-01 -6.3815271854400635e-01</leafValues></_></weakClassifiers></_>
    <!-- stage 8 -->
    <_>
      <maxWeakCount>11</maxWeakCount>
      <stageThreshold>-7.1818304061889648e-01</stageThreshold>
      <weakClassifiers>
        <_>
          <internalNodes>
            0 -1 118 -9.9574578925967216e-03</internalNodes>
          <leafValues>
            4.1818180680274963e-01 -2.7831095457077026e-01</leafValues></_>
        <_>
          <internalNodes>
            0 -1 156 1.3270616764202714e-03</internalNodes>
          <leafValues>
            1.4820322394371033e-01 -8.2673680782318115e-01</leafValues></_>
        <_>
          <internalNodes>
            0 -1 110 5.9183681150898337e-04</internalNodes>
          <leafValues>
            1.4282268285751343e-01 -7.0889264345169067e-01</leafValues></_>
        <_>
          <internalNodes>
            0 -1 10 2.0995175000280142e-03</internalNodes>
          <leafValues>
            1.1068547517061234e-01 -7.6498633623123169e-01</leafValues></_>
        <_>
          <internalNodes>
            0 -1 195 5.7628825306892395e-03</internalNodes>
          <leafValues>
            -1.6727475821971893e-01 6.1354237794876099e-01</leafValues></_>
        <_>
          <internalNodes>
            0 -1 222 -2.9940786771476269e-04</internalNodes>
          <leafValues>
            -7.1434408426284790e-01 1.0623998939990997e-01</leafValues></_>
        <_>
          <internalNodes>
            0 -1 191 5.6483480148017406e-04</internalNodes>
          <leafValues>
            1.3279755413532257e-01 -6.9596385955810547e-01</leafValues></_>
        <_>
          <internalNodes>
            0 -1 202 3.3038273453712463e-02</internalNodes>
          <leafValues>
            1.0499260574579239e-01 -8.0050808191299438e-01</leafValues></_>
        <_>
          <internalNodes>
            0 -1 185 8.9717647060751915e-03</internalNodes>
          <leafValues>
            -4.2623057961463928e-01 2.0567753911018372e-01</leafValues></_>
        <_>
          <internalNodes>
            0 -1 44 -3.4112499561160803e-03</internalNodes>
          <leafValues>
            -2.8393095731735229e-01 3.3634400367736816e-01</leafValues></_>
        <_>
          <internalNodes>
            0 -1 146 -6.6578114638105035e-04</internalNodes>
          <leafValues>
            -9.9054747819900513e-01 8.6254671216011047e-02</leafValues></_></weakClassifiers></_>
    <!-- stage 9 -->
    <_>
      <maxWeakCount>12</maxWeakCount>
      <stageThreshold>-6.2439876794815063e-01</stageThreshold>
      <weakClassifiers>
        <_>
          <internalNodes>
            0 -1 240 -2.7525830082595348e-03</internalNodes>
          <leafValues>
            -5.1658767461776733e-01 1.9733333587646484e-01</leafValues></_>
        <_>
          <internalNodes>
            0 -1 235 1.2368811294436455e-02</internalNodes>
          <leafValues>
            -1.3826470077037811e-01 7.0105576515197754e-01</leafValues></_>
        <_>
          <internalNodes>
            0 -1 123 1.6020448878407478e-02</internalNodes>
          <leafValues>
            -9.6918009221553802e-02 7.7227789163589478e-01</leafValues></_>
        <_>
          <internalNodes>
            0 -1 77 -8.3198938518762589e-03</internalNodes>
          <leafValues>
            6.6551947593688965e-01 -1.6725657880306244e-01</leafValues></_>
        <_>
          <internalNodes>
            0 -1 225 -9.3333213590085506e-04</internalNodes>
          <leafValues>
            -5.8695673942565918e-01 1.8329636752605438e-01</leafValues></_>
        <_>
          <internalNodes>
            0 -1 67 4.9682199954986572e-02</internalNodes>
          <leafValues>
            -1.8211257457733154e-01 4.8364219069480896e-01</leafValues></_>
        <_>
          <internalNodes>
            0 -1 107 1.9894733559340239e-03</internalNodes>
          <leafValues>
            -2.3712499439716339e-01 3.7447017431259155e-01</leafValues></_>
        <_>
          <internalNodes>
            0 -1 46 1.5283157117664814e-03</internalNodes>
          <leafValues>
            1.5391121804714203e-01 -7.8322738409042358e-01</leafValues></_>
        <_>
          <internalNodes>
            0 -1 21 -1.2879439629614353e-02</internalNodes>
          <leafValues>
            4.9744924902915955e-01 -2.0338357985019684e-01</leafValues></_>
        <_>
          <internalNodes>
            0 -1 27 7.7397970017045736e-04</internalNodes>
          <leafValues>
            1.3992547988891602e-01 -8.5103321075439453e-01</leafValues></_>
        <_>
          <internalNodes>
            0 -1 87 1.1858963407576084e-02</internalNodes>
          <leafValues>
            -1.5620803833007813e-01 7.4278819561004639e-01</leafValues></_>
        <_>
          <internalNodes>
            0 -1 24 6.4643952064216137e-03</internalNodes>
          <leafValues>
            1.7252913117408752e-01 -5.5229693651199341e-01</leafValues></_></weakClassifiers></_>
    <!-- stage 10 -->
    <_>
      <maxWeakCount>16</maxWeakCount>
      <stageThreshold>-1.0919965505599976e+00</stageThreshold>
      <weakClassifiers>
        <_>
          <internalNodes>
            0 -1 86 -5.1792338490486145e-03</internalNodes>
          <leafValues>
            -6.4779871702194214e-01 1.7705735564231873e-01</leafValues></_>
        <_>
          <internalNodes>
            0 -1 43 -3.9183832705020905e-02</internalNodes>
          <leafValues>
            2.7096822857856750e-01 -3.0828171968460083e-01</leafValues></_>
        <_>
          <internalNodes>
            0 -1 190 4.6555156586691737e-04</internalNodes>
          <leafValues>
            1.3357229530811310e-01 -8.1501108407974243e-01</leafValues></_>
        <_>
          <internalNodes>
            0 -1 170 4.4101234525442123e-03</internalNodes>
          <leafValues>
            -1.1842548847198486e-01 9.1881859302520752e-01</leafValues></_>
        <_>
          <internalNodes>
            0 -1 233 1.1774165555834770e-02</internalNodes>
          <leafValues>
            -1.4403274655342102e-01 6.5451526641845703e-01</leafValues></_>
        <_>
          <internalNodes>
            0 -1 226 7.1184110129252076e-04</internalNodes>
          <leafValues>
            1.1979545652866364e-01 -7.1793371438980103e-01</leafValues></_>
        <_>
          <internalNodes>
            0 -1 116 1.5619596466422081e-02</internalNodes>
          <leafValues>
            -1.1793149262666702e-01 8.7396275997161865e-01</leafValues></_>
        <_>
          <internalNodes>
            0 -1 166 2.7016410604119301e-04</internalNodes>
          <leafValues>
            1.5426521003246307e-01 -7.6188260316848755e-01</leafValues></_>
        <_>
          <internalNodes>
            0 -1 125 -1.4587157405912876e-02</internalNodes>
          <leafValues>
            8.4061670303344727e-01 -1.2854208052158356e-01</leafValues></_>
        <_>
          <internalNodes>
            0 -1 155 5.9479428455233574e-03</internalNodes>
          <leafValues>
            1.2082954496145248e-01 -7.8613513708114624e-01</leafValues></_>
        <_>
          <internalNodes>
            0 -1 150 -3.5552186891436577e-03</internalNodes>
          <leafValues>
            -4.3720552325248718e-01 2.1212412416934967e-01</leafValues></_>
        <_>
          <internalNodes>
            0 -1 239 -4.9697486683726311e-03</internalNodes>
          <leafValues>
            -8.2505309581756592e-01 1.1288165301084518e-01</leafValues></_>
        <_>
          <internalNodes>
            0 -1 127 -1.5436913818120956e-02</internalNodes>
          <leafValues>
            3.0131563544273376e-01 -2.8811272978782654e-01</leafValues></_>
        <_>
          <internalNodes>
            0 -1 162 -5.0510803703218699e-04</internalNodes>
          <leafValues>
            5.2340084314346313e-01 -1.9896930456161499e-01</leafValues></_>
        <_>
          <internalNodes>
            0 -1 157 1.1323513463139534e-02</internalNodes>
          <leafValues>
            -5.7222247123718262e-02 9.1954201459884644e-01</leafValues></_>
        <_>
          <internalNodes>
            0 -1 164 1.2027451302856207e-03</internalNodes>
          <leafValues>
            1.3393139839172363e-01 -6.7568039894104004e-01</leafValues></_></weakClassifiers></_>
    <!-- stage 11 -->
    <_>
      <maxWeakCount>16</maxWeakCount>
      <stageThreshold>-9.2259502410888672e-01</stageThreshold>
      <weakClassifiers>
        <_>
          <internalNodes>
            0 -1 55 6.4103351905941963e-03</internalNodes>
          <leafValues>
            -2.2568807005882263e-01 3.8942307233810425e-01</leafValues></_>
        <_>
          <internalNodes>
            0 -1 14 -1.0152740404009819e-02</internalNodes>
          <leafValues>
            6.8848490715026855e-01 -1.2684477865695953e-01</leafValues></_>
        <_>
          <internalNodes>
            0 -1 158 3.9868010208010674e-03</internalNodes>
          <leafValues>
            -1.4639714360237122e-01 7.6517409086227417e-01</leafValues></_>
        <_>
          <internalNodes>
            0 -1 165 -4.6649230644106865e-03</internalNodes>
          <leafValues>
            -6.7702543735504150e-01 1.7262731492519379e-01</leafValues></_>
        <_>
          <internalNodes>
            0 -1 96 -1.5106622129678726e-02</internalNodes>
          <leafValues>
            5.8038544654846191e-01 -1.5248697996139526e-01</leafValues></_>
        <_>
          <internalNodes>
            0 -1 48 2.8896075673401356e-03</internalNodes>
          <leafValues>
            -1.6939651966094971e-01 4.6469840407371521e-01</leafValues></_>
        <_>
          <internalNodes>
            0 -1 82 2.3244433104991913e-03</internalNodes>
          <leafValues>
            -2.6826173067092896e-01 3.2553988695144653e-01</leafValues></_>
        <_>
          <internalNodes>
            0 -1 65 5.4897954687476158e-03</internalNodes>
          <leafValues>
            1.1171352863311768e-01 -7.1736973524093628e-01</leafValues></_>
        <_>
          <internalNodes>
            0 -1 242 -1.6250305343419313e-03</internalNodes>
          <leafValues>
            -6.3862437009811401e-01 1.3702787458896637e-01</leafValues></_>
        <_>
          <internalNodes>
            0 -1 73 -7.7420666813850403e-02</internalNodes>
          <leafValues>
            -9.1470038890838623e-01 9.8472945392131805e-02</leafValues></_>
        <_>
          <internalNodes>
            0 -1 56 8.2072243094444275e-03</internalNodes>
          <leafValues>
            -1.4004786312580109e-01 8.9464372396469116e-01</leafValues></_>
        <_>
          <internalNodes>
            0 -1 94 3.7294011563062668e-03</internalNodes>
          <leafValues>
            1.6990415751934052e-01 -6.8216884136199951e-01</leafValues></_>
        <_>
          <internalNodes>
            0 -1 238 -2.1178061433602124e-04</internalNodes>
          <leafValues>
            -6.1443912982940674e-01 1.3088023662567139e-01</leafValues></_>
        <_>
          <internalNodes>
            0 -1 214 -2.5698724202811718e-03</internalNodes>
          <leafValues>
            3.4007379412651062e-01 -3.0414068698883057e-01</leafValues></_>
        <_>
          <internalNodes>
            0 -1 9 -8.1694847904145718e-04</internalNodes>
          <leafValues>
            -8.3005809783935547e-01 1.2186404317617416e-01</leafValues></_>
        <_>
          <internalNodes>
            0 -1 218 -8.7723776232451200e-04</internalNodes>
          <leafValues>
            4.3076232075691223e-01 -2.3071639239788055e-01</leafValues></_></weakClassifiers></_>
    <!-- stage 12 -->
    <_>
      <maxWeakCount>14</maxWeakCount>
      <stageThreshold>-7.7623200416564941e-01</stageThreshold>
      <weakClassifiers>
        <_>
          <internalNodes>
            0 -1 72 -4.1993454098701477e-02</internalNodes>
          <leafValues>
            4.7999998927116394e-01 -1.5885022282600403e-01</leafValues></_>
        <_>
          <internalNodes>
            0 -1 134 8.2521572709083557e-02</internalNodes>
          <leafValues>
            1.1920904368162155e-01 -8.3619874715805054e-01</leafValues></_>
        <_>
          <internalNodes>
            0 -1 52 5.7045263238251209e-03</internalNodes>
          <leafValues>
            -1.3599286973476410e-01 6.3185477256774902e-01</leafValues></_>
        <_>
          <internalNodes>
            0 -1 120 2.1750096231698990e-02</internalNodes>
          <leafValues>
            1.5377338230609894e-01 -5.9862327575683594e-01</leafValues></_>
        <_>
          <internalNodes>
            0 -1 2 -2.8639649972319603e-03</internalNodes>
          <leafValues>
            -7.7795886993408203e-01 1.1185722798109055e-01</leafValues></_>
        <_>
          <internalNodes>
            0 -1 196 -1.1141388677060604e-03</internalNodes>
          <leafValues>
            5.4364746809005737e-01 -1.8589317798614502e-01</leafValues></_>
        <_>
          <internalNodes>
            0 -1 135 -5.7270210236310959e-03</internalNodes>
          <leafValues>
            5.5998468399047852e-01 -1.9580818712711334e-01</leafValues></_>
        <_>
          <internalNodes>
            0 -1 229 7.1818027645349503e-03</internalNodes>
          <leafValues>
            -6.4493402838706970e-02 6.8864655494689941e-01</leafValues></_>
        <_>
          <internalNodes>
            0 -1 171 -3.8833848666399717e-03</internalNodes>
          <leafValues>
            -8.5117214918136597e-01 1.4122685790061951e-01</leafValues></_>
        <_>
          <internalNodes>
            0 -1 209 3.2595465891063213e-03</internalNodes>
          <leafValues>
            -2.9975882172584534e-01 2.7188003063201904e-01</leafValues></_>
        <_>
          <internalNodes>
            0 -1 154 1.2916775885969400e-03</internalNodes>
          <leafValues>
            1.7446693778038025e-01 -5.5995923280715942e-01</leafValues></_>
        <_>
          <internalNodes>
            0 -1 181 -1.3423778582364321e-03</internalNodes>
          <leafValues>
            4.5470035076141357e-01 -2.3261652886867523e-01</leafValues></_>
        <_>
          <internalNodes>
            0 -1 212 -2.6420257054269314e-03</internalNodes>
          <leafValues>
            -6.4658272266387939e-01 1.5196251869201660e-01</leafValues></_>
        <_>
          <internalNodes>
            0 -1 139 -3.1687542796134949e-03</internalNodes>
          <leafValues>
            5.3106325864791870e-01 -1.9252747297286987e-01</leafValues></_></weakClassifiers></_>
    <!-- stage 13 -->
    <_>
      <maxWeakCount>15</maxWeakCount>
      <stageThreshold>-7.5801992416381836e-01</stageThreshold>
      <weakClassifiers>
        <_>
          <internalNodes>
            0 -1 33 4.1457003680989146e-04</internalNodes>
          <leafValues>
            1.6562889516353607e-01 -5.9493672847747803e-01</leafValues></_>
        <_>
          <internalNodes>
            0 -1 35 -9.0387025848031044e-03</internalNodes>
          <leafValues>
            8.7372678518295288e-01 -9.8147377371788025e-02</leafValues></_>
        <_>
          <internalNodes>
            0 -1 228 -1.2680832296609879e-02</internalNodes>
          <leafValues>
            4.9426466226577759e-01 -1.9205811619758606e-01</leafValues></_>
        <_>
          <internalNodes>
            0 -1 187 -1.6973321326076984e-03</internalNodes>
          <leafValues>
            -5.1808565855026245e-01 2.4320116639137268e-01</leafValues></_>
        <_>
          <internalNodes>
            0 -1 6 -7.9733121674507856e-04</internalNodes>
          <leafValues>
            1.1284004151821136e-01 -4.7250023484230042e-01</leafValues></_>
        <_>
          <internalNodes>
            0 -1 49 8.1124380230903625e-03</internalNodes>
          <leafValues>
            -2.0725131034851074e-01 4.2060685157775879e-01</leafValues></_>
        <_>
          <internalNodes>
            0 -1 102 -1.9871194381266832e-03</internalNodes>
          <leafValues>
            2.9973605275154114e-01 -2.8546246886253357e-01</leafValues></_>
        <_>
          <internalNodes>
            0 -1 15 -3.2504942268133163e-02</internalNodes>
          <leafValues>
            -7.5086593627929688e-01 8.9145503938198090e-02</leafValues></_>
        <_>
          <internalNodes>
            0 -1 179 3.6003720015287399e-04</internalNodes>
          <leafValues>
            1.3082641363143921e-01 -5.6158649921417236e-01</leafValues></_>
        <_>
          <internalNodes>
            0 -1 16 4.7307927161455154e-03</internalNodes>
          <leafValues>
            -2.0093557238578796e-01 3.9264494180679321e-01</leafValues></_>
        <_>
          <internalNodes>
            0 -1 5 -3.1033447012305260e-03</internalNodes>
          <leafValues>
            -8.4331434965133667e-01 9.2848636209964752e-02</leafValues></_>
        <_>
          <internalNodes>
            0 -1 221 4.0529137477278709e-03</internalNodes>
          <leafValues>
            -1.0160601139068604e-01 9.1628921031951904e-01</leafValues></_>
        <_>
          <internalNodes>
            0 -1 63 -2.1405961364507675e-02</internalNodes>
          <leafValues>
            6.6852921247482300e-01 -9.5703803002834320e-02</leafValues></_>
        <_>
          <internalNodes>
            0 -1 66 3.5879830829799175e-04</internalNodes>
          <leafValues>
            -2.4394056200981140e-01 3.3866482973098755e-01</leafValues></_>
        <_>
          <internalNodes>
            0 -1 129 2.4297758936882019e-02</internalNodes>
          <leafValues>
            1.1575636267662048e-01 -7.5260382890701294e-01</leafValues></_></weakClassifiers></_>
    <!-- stage 14 -->
    <_>
      <maxWeakCount>13</maxWeakCount>
      <stageThreshold>-5.8665239810943604e-01</stageThreshold>
      <weakClassifiers>
        <_>
          <internalNodes>
            0 -1 244 2.9825647361576557e-03</internalNodes>
          <leafValues>
            1.2844036519527435e-01 -8.2022470235824585e-01</leafValues></_>
        <_>
          <internalNodes>
            0 -1 145 -7.5497981160879135e-03</internalNodes>
          <leafValues>
            6.0702997446060181e-01 -1.1618712544441223e-01</leafValues></_>
        <_>
          <internalNodes>
            0 -1 58 -4.6933032572269440e-02</internalNodes>
          <leafValues>
            4.0885588526725769e-01 -1.9541612267494202e-01</leafValues></_>
        <_>
          <internalNodes>
            0 -1 138 4.7364614903926849e-02</internalNodes>
          <leafValues>
            8.6489319801330566e-02 -8.1799727678298950e-01</leafValues></_>
        <_>
          <internalNodes>
            0 -1 111 1.2494752882048488e-03</internalNodes>
          <leafValues>
            1.0660201311111450e-01 -8.0228579044342041e-01</leafValues></_>
        <_>
          <internalNodes>
            0 -1 188 1.2326405849307775e-03</internalNodes>
          <leafValues>
            -1.7451331019401550e-01 5.4341638088226318e-01</leafValues></_>
        <_>
          <internalNodes>
            0 -1 109 5.9369686059653759e-03</internalNodes>
          <leafValues>
            -1.5468201041221619e-01 6.7529010772705078e-01</leafValues></_>
        <_>
          <internalNodes>
            0 -1 1 1.3937081675976515e-03</internalNodes>
          <leafValues>
            1.6882836818695068e-01 -8.3283901214599609e-01</leafValues></_>
        <_>
          <internalNodes>
            0 -1 210 1.4297255547717214e-03</internalNodes>
          <leafValues>
            -1.7980431020259857e-01 7.2516077756881714e-01</leafValues></_>
        <_>
          <internalNodes>
            0 -1 26 9.5584336668252945e-04</internalNodes>
          <leafValues>
            2.0001982152462006e-01 -5.8300673961639404e-01</leafValues></_>
        <_>
          <internalNodes>
            0 -1 53 -9.7810504958033562e-03</internalNodes>
          <leafValues>
            5.7071775197982788e-01 -1.8852239847183228e-01</leafValues></_>
        <_>
          <internalNodes>
            0 -1 167 2.6837887708097696e-03</internalNodes>
          <leafValues>
            1.8101039528846741e-01 -6.3488852977752686e-01</leafValues></_>
        <_>
          <internalNodes>
            0 -1 69 6.0367323458194733e-03</internalNodes>
          <leafValues>
            -1.4430160820484161e-01 6.8739145994186401e-01</leafValues></_></weakClassifiers></_>
    <!-- stage 15 -->
    <_>
      <maxWeakCount>15</maxWeakCount>
      <stageThreshold>-7.3831945657730103e-01</stageThreshold>
      <weakClassifiers>
        <_>
          <internalNodes>
            0 -1 122 -5.2887266501784325e-03</internalNodes>
          <leafValues>
            3.5813954472541809e-01 -2.1657250821590424e-01</leafValues></_>
        <_>
          <internalNodes>
            0 -1 203 -3.2169646583497524e-03</internalNodes>
          <leafValues>
            5.6965589523315430e-01 -1.3598993420600891e-01</leafValues></_>
        <_>
          <internalNodes>
            0 -1 4 -3.3116049598902464e-04</internalNodes>
          <leafValues>
            2.2436197102069855e-01 -3.6022198200225830e-01</leafValues></_>
        <_>
          <internalNodes>
            0 -1 60 -2.2563196253031492e-03</internalNodes>
          <leafValues>
            -5.3410923480987549e-01 1.4407052099704742e-01</leafValues></_>
        <_>
          <internalNodes>
            0 -1 239 -4.6256696805357933e-03</internalNodes>
          <leafValues>
            -7.7457326650619507e-01 1.1755990982055664e-01</leafValues></_>
        <_>
          <internalNodes>
            0 -1 194 -6.0601336881518364e-03</internalNodes>
          <leafValues>
            7.0136302709579468e-01 -1.2225820869207382e-01</leafValues></_>
        <_>
          <internalNodes>
            0 -1 130 1.0414174757897854e-03</internalNodes>
          <leafValues>
            7.9658873379230499e-02 -8.2920873165130615e-01</leafValues></_>
        <_>
          <internalNodes>
            0 -1 32 -2.4846475571393967e-04</internalNodes>
          <leafValues>
            -5.9646356105804443e-01 1.2148050218820572e-01</leafValues></_>
        <_>
          <internalNodes>
            0 -1 64 3.8245070725679398e-02</internalNodes>
          <leafValues>
            1.6230607032775879e-01 -4.8526242375373840e-01</leafValues></_>
        <_>
          <internalNodes>
            0 -1 142 1.1746631935238838e-02</internalNodes>
          <leafValues>
            7.4820771813392639e-02 -9.3086659908294678e-01</leafValues></_>
        <_>
          <internalNodes>
            0 -1 172 -5.8122014161199331e-04</internalNodes>
          <leafValues>
            3.6651334166526794e-01 -2.2675544023513794e-01</leafValues></_>
        <_>
          <internalNodes>
            0 -1 133 7.9234654549509287e-04</internalNodes>
          <leafValues>
            1.7265321314334869e-01 -4.8552769422531128e-01</leafValues></_>
        <_>
          <internalNodes>
            0 -1 247 7.3678203625604510e-04</internalNodes>
          <leafValues>
            1.1097152531147003e-01 -6.9669502973556519e-01</leafValues></_>
        <_>
          <internalNodes>
            0 -1 153 4.4107846915721893e-03</internalNodes>
          <leafValues>
            -1.8006591498851776e-01 5.6175190210342407e-01</leafValues></_>
        <_>
          <internalNodes>
            0 -1 220 -2.0014893263578415e-02</internalNodes>
          <leafValues>
            6.7964333295822144e-01 -1.0837525129318237e-01</leafValues></_></weakClassifiers></_>
    <!-- stage 16 -->
    <_>
      <maxWeakCount>16</maxWeakCount>
      <stageThreshold>-6.8004965782165527e-01</stageThreshold>
      <weakClassifiers>
        <_>
          <internalNodes>
            0 -1 219 1.3430431135930121e-04</internalNodes>
          <leafValues>
            1.5384615957736969e-01 -6.8992245197296143e-01</leafValues></_>
        <_>
          <internalNodes>
            0 -1 20 1.6459609614685178e-03</internalNodes>
          <leafValues>
            8.3321265876293182e-02 -7.8525918722152710e-01</leafValues></_>
        <_>
          <internalNodes>
            0 -1 103 4.3761553242802620e-03</internalNodes>
          <leafValues>
            -9.3973092734813690e-02 6.9063359498977661e-01</leafValues></_>
        <_>
          <internalNodes>
            0 -1 217 7.8846914693713188e-03</internalNodes>
          <leafValues>
            -1.7096710205078125e-01 5.3336948156356812e-01</leafValues></_>
        <_>
          <internalNodes>
            0 -1 112 3.1628869473934174e-03</internalNodes>
          <leafValues>
            1.7829152941703796e-01 -5.7305955886840820e-01</leafValues></_>
        <_>
          <internalNodes>
            0 -1 224 4.3896199204027653e-03</internalNodes>
          <leafValues>
            -1.2126860767602921e-01 8.0876493453979492e-01</leafValues></_>
        <_>
          <internalNodes>
            0 -1 169 -7.4981683865189552e-03</internalNodes>
          <leafValues>
            8.6551368236541748e-01 -9.3624070286750793e-02</leafValues></_>
        <_>
          <internalNodes>
            0 -1 204 2.0679282024502754e-03</internalNodes>
          <leafValues>
            1.4062635600566864e-01 -7.7103525400161743e-01</leafValues></_>
        <_>
          <internalNodes>
            0 -1 177 6.2477262690663338e-03</internalNodes>
          <leafValues>
            -2.5655022263526917e-01 3.4152096509933472e-01</leafValues></_>
        <_>
          <internalNodes>
            0 -1 205 9.0255821123719215e-03</internalNodes>
          <leafValues>
            -1.9793967902660370e-01 3.9528170228004456e-01</leafValues></_>
        <_>
          <internalNodes>
            0 -1 22 -8.6824892787262797e-04</internalNodes>
          <leafValues>
            1.9926908612251282e-01 -4.1723245382308960e-01</leafValues></_>
        <_>
          <internalNodes>
            0 -1 173 1.2926047202199697e-03</internalNodes>
          <leafValues>
            1.0314299911260605e-01 -6.6163671016693115e-01</leafValues></_>
        <_>
          <internalNodes>
            0 -1 104 -4.8467111773788929e-03</internalNodes>
          <leafValues>
            4.0095874667167664e-01 -2.0878092944622040e-01</leafValues></_>
        <_>
          <internalNodes>
            0 -1 198 5.5444082245230675e-03</internalNodes>
          <leafValues>
            -1.9451704621315002e-01 4.1783642768859863e-01</leafValues></_>
        <_>
          <internalNodes>
            0 -1 81 -3.5279087722301483e-02</internalNodes>
          <leafValues>
            8.6914527416229248e-01 -8.7284356355667114e-02</leafValues></_>
        <_>
          <internalNodes>
            0 -1 159 1.5813189093023539e-03</internalNodes>
          <leafValues>
            1.4519880712032318e-01 -7.1804964542388916e-01</leafValues></_></weakClassifiers></_>
    <!-- stage 17 -->
    <_>
      <maxWeakCount>16</maxWeakCount>
      <stageThreshold>-9.2865890264511108e-01</stageThreshold>
      <weakClassifiers>
        <_>
          <internalNodes>
            0 -1 83 -7.0534478873014450e-03</internalNodes>
          <leafValues>
            -6.1702126264572144e-01 1.5365853905677795e-01</leafValues></_>
        <_>
          <internalNodes>
            0 -1 42 -5.8627713471651077e-02</internalNodes>
          <leafValues>
            -7.1466815471649170e-01 9.4118349254131317e-02</leafValues></_>
        <_>
          <internalNodes>
            0 -1 51 -2.8042560443282127e-03</internalNodes>
          <leafValues>
            5.9097325801849365e-01 -1.4285746216773987e-01</leafValues></_>
        <_>
          <internalNodes>
            0 -1 232 1.3292292132973671e-02</internalNodes>
          <leafValues>
            -1.1779677122831345e-01 5.7736140489578247e-01</leafValues></_>
        <_>
          <internalNodes>
            0 -1 36 -3.8167055696249008e-02</internalNodes>
          <leafValues>
            4.5273950695991516e-01 -1.5733878314495087e-01</leafValues></_>
        <_>
          <internalNodes>
            0 -1 57 -1.3601931929588318e-01</internalNodes>
          <leafValues>
            5.2679949998855591e-01 -2.2896166145801544e-01</leafValues></_>
        <_>
          <internalNodes>
            0 -1 62 -2.3061953485012054e-02</internalNodes>
          <leafValues>
            7.1115970611572266e-01 -3.9648883044719696e-02</leafValues></_>
        <_>
          <internalNodes>
            0 -1 189 -2.2297430783510208e-02</internalNodes>
          <leafValues>
            4.9904051423072815e-01 -1.6664916276931763e-01</leafValues></_>
        <_>
          <internalNodes>
            0 -1 160 6.1349980533123016e-03</internalNodes>
          <leafValues>
            -1.3619019091129303e-01 9.1957795619964600e-01</leafValues></_>
        <_>
          <internalNodes>
            0 -1 223 -1.6034920699894428e-03</internalNodes>
          <leafValues>
            -8.1019115447998047e-01 1.2652936577796936e-01</leafValues></_>
        <_>
          <internalNodes>
            0 -1 40 6.1566736549139023e-03</internalNodes>
          <leafValues>
            1.2451152503490448e-01 -5.5130630731582642e-01</leafValues></_>
        <_>
          <internalNodes>
            0 -1 180 7.6713529415428638e-03</internalNodes>
          <leafValues>
            -1.4335988461971283e-01 5.9831190109252930e-01</leafValues></_>
        <_>
          <internalNodes>
            0 -1 71 1.9607220310717821e-03</internalNodes>
          <leafValues>
            -2.1173363924026489e-01 4.0026536583900452e-01</leafValues></_>
        <_>
          <internalNodes>
            0 -1 91 1.7710769316181540e-04</internalNodes>
          <leafValues>
            1.4923237264156342e-01 -6.6973191499710083e-01</leafValues></_>
        <_>
          <internalNodes>
            0 -1 213 -3.9370749145746231e-03</internalNodes>
          <leafValues>
            6.7408466339111328e-01 -1.4789815247058868e-01</leafValues></_>
        <_>
          <internalNodes>
            0 -1 197 -5.1736184395849705e-03</internalNodes>
          <leafValues>
            9.3398362398147583e-01 -8.4274418652057648e-02</leafValues></_></weakClassifiers></_>
    <!-- stage 18 -->
    <_>
      <maxWeakCount>20</maxWeakCount>
      <stageThreshold>-1.0238116979598999e+00</stageThreshold>
      <weakClassifiers>
        <_>
          <internalNodes>
            0 -1 163 -7.7025871723890305e-03</internalNodes>
          <leafValues>
            8.0582523345947266e-01 -5.1282051950693130e-02</leafValues></_>
        <_>
          <internalNodes>
            0 -1 11 -1.5138208866119385e-02</internalNodes>
          <leafValues>
            5.8046901226043701e-01 -1.5877389907836914e-01</leafValues></_>
        <_>
          <internalNodes>
            0 -1 241 -7.5243832543492317e-04</internalNodes>
          <leafValues>
            -6.4605826139450073e-01 1.5562632679939270e-01</leafValues></_>
        <_>
          <internalNodes>
            0 -1 208 -3.8160607218742371e-02</internalNodes>
          <leafValues>
            7.3763483762741089e-01 -8.5169449448585510e-02</leafValues></_>
        <_>
          <internalNodes>
            0 -1 186 -5.0715664401650429e-03</internalNodes>
          <leafValues>
            5.4474711418151855e-01 -1.6147321462631226e-01</leafValues></_>
        <_>
          <internalNodes>
            0 -1 121 1.0993052273988724e-02</internalNodes>
          <leafValues>
            -2.4260446429252625e-01 3.0599293112754822e-01</leafValues></_>
        <_>
          <internalNodes>
            0 -1 25 1.0257386602461338e-03</internalNodes>
          <leafValues>
            9.8886117339134216e-02 -8.4155869483947754e-01</leafValues></_>
        <_>
          <internalNodes>
            0 -1 192 -6.3753128051757813e-02</internalNodes>
          <leafValues>
            -9.3493258953094482e-01 9.0408027172088623e-02</leafValues></_>
        <_>
          <internalNodes>
            0 -1 128 -1.4698408544063568e-01</internalNodes>
          <leafValues>
            4.8803430795669556e-01 -1.8452733755111694e-01</leafValues></_>
        <_>
          <internalNodes>
            0 -1 184 -1.8458202481269836e-02</internalNodes>
          <leafValues>
            5.6637209653854370e-01 -1.8348664045333862e-01</leafValues></_>
        <_>
          <internalNodes>
            0 -1 98 -7.5383530929684639e-03</internalNodes>
          <leafValues>
            8.1077706813812256e-01 -9.9991068243980408e-02</leafValues></_>
        <_>
          <internalNodes>
            0 -1 68 2.8169557452201843e-02</internalNodes>
          <leafValues>
            -1.0878735035657883e-01 6.2004369497299194e-01</leafValues></_>
        <_>
          <internalNodes>
            0 -1 215 6.0694664716720581e-04</internalNodes>
          <leafValues>
            1.6123783588409424e-01 -5.1819682121276855e-01</leafValues></_>
        <_>
          <internalNodes>
            0 -1 34 2.0268073678016663e-01</internalNodes>
          <leafValues>
            1.0659880191087723e-01 -7.1141850948333740e-01</leafValues></_>
        <_>
          <internalNodes>
            0 -1 45 -3.4376494586467743e-03</internalNodes>
          <leafValues>
            -7.0837950706481934e-01 8.1643305718898773e-02</leafValues></_>
        <_>
          <internalNodes>
            0 -1 141 -1.3206537812948227e-02</internalNodes>
          <leafValues>
            6.7071980237960815e-01 -1.3315346837043762e-01</leafValues></_>
        <_>
          <internalNodes>
            0 -1 176 -1.8567678052932024e-03</internalNodes>
          <leafValues>
            5.8100593090057373e-01 -1.1670001596212387e-01</leafValues></_>
        <_>
          <internalNodes>
            0 -1 78 -1.2066743522882462e-01</internalNodes>
          <leafValues>
            5.9858787059783936e-01 -1.4404782652854919e-01</leafValues></_>
        <_>
          <internalNodes>
            0 -1 106 9.2225400730967522e-03</internalNodes>
          <leafValues>
            -2.0082107186317444e-01 4.0593415498733521e-01</leafValues></_>
        <_>
          <internalNodes>
            0 -1 0 -6.4970063976943493e-04</internalNodes>
          <leafValues>
            -9.1341352462768555e-01 8.9404784142971039e-02</leafValues></_></weakClassifiers></_>
    <!-- stage 19 -->
    <_>
      <maxWeakCount>13</maxWeakCount>
      <stageThreshold>-6.1542189121246338e-01</stageThreshold>
      <weakClassifiers>
        <_>
          <internalNodes>
            0 -1 100 1.0670127719640732e-01</internalNodes>
          <leafValues>
            1.3364055752754211e-01 -8.2795697450637817e-01</leafValues></_>
        <_>
          <internalNodes>
            0 -1 236 -5.2003382006660104e-04</internalNodes>
          <leafValues>
            -6.5458649396896362e-01 1.3024176657199860e-01</leafValues></_>
        <_>
          <internalNodes>
            0 -1 79 1.2537129223346710e-02</internalNodes>
          <leafValues>
            -2.0807029306888580e-01 3.7816500663757324e-01</leafValues></_>
        <_>
          <internalNodes>
            0 -1 174 4.4187167659401894e-03</internalNodes>
          <leafValues>
            1.1452206224203110e-01 -7.1608752012252808e-01</leafValues></_>
        <_>
          <internalNodes>
            0 -1 143 -6.3653001561760902e-03</internalNodes>
          <leafValues>
            4.1423866152763367e-01 -2.1127662062644958e-01</leafValues></_>
        <_>
          <internalNodes>
            0 -1 200 8.5224462673068047e-03</internalNodes>
          <leafValues>
            -3.8854214549064636e-01 2.2170549631118774e-01</leafValues></_>
        <_>
          <internalNodes>
            0 -1 97 -2.9711488634347916e-02</internalNodes>
          <leafValues>
            -5.8073836565017700e-01 2.2213640809059143e-01</leafValues></_>
        <_>
          <internalNodes>
            0 -1 114 1.7400231445208192e-04</internalNodes>
          <leafValues>
            -2.8732919692993164e-01 3.0183497071266174e-01</leafValues></_>
        <_>
          <internalNodes>
            0 -1 246 1.2021032162010670e-03</internalNodes>
          <leafValues>
            6.1731971800327301e-02 -7.4096071720123291e-01</leafValues></_>
        <_>
          <internalNodes>
            0 -1 182 1.2561888433992863e-03</internalNodes>
          <leafValues>
            1.4591585099697113e-01 -4.9765494465827942e-01</leafValues></_>
        <_>
          <internalNodes>
            0 -1 168 -2.9301043832674623e-04</internalNodes>
          <leafValues>
            -4.4671481847763062e-01 1.9448955357074738e-01</leafValues></_>
        <_>
          <internalNodes>
            0 -1 115 -3.1561665236949921e-03</internalNodes>
          <leafValues>
            6.2712079286575317e-01 -1.1944783478975296e-01</leafValues></_>
        <_>
          <internalNodes>
            0 -1 54 -6.1788335442543030e-03</internalNodes>
          <leafValues>
            6.4645755290985107e-01 -1.2694796919822693e-01</leafValues></_></weakClassifiers></_></stages>
  <features>
    <_>
      <rects>
        <_>
          0 0 1 4 -1.</_>
        <_>
          0 2 1 2 2.</_></rects>
      <tilted>0</tilted></_>
    <_>
      <rects>
        <_>
          0 0 1 9 -1.</_>
        <_>
          0 3 1 3 3.</_></rects>
      <tilted>0</tilted></_>
    <_>
      <rects>
        <_>
          0 0 1 14 -1.</_>
        <_>
          0 7 1 7 2.</_></rects>
      <tilted>0</tilted></_>
    <_>
      <rects>
        <_>
          0 0 1 24 -1.</_>
        <_>
          0 12 1 12 2.</_></rects>
      <tilted>0</tilted></_>
    <_>
      <rects>
        <_>
          0 0 12 9 -1.</_>
        <_>
          6 0 6 9 2.</_></rects>
      <tilted>0</tilted></_>
    <_>
      <rects>
        <_>
          0 0 21 1 -1.</_>
        <_>
          7 0 7 1 3.</_></rects>
      <tilted>0</tilted></_>
    <_>
      <rects>
        <_>
          0 0 14 22 -1.</_>
        <_>
          7 0 7 22 2.</_></rects>
      <tilted>0</tilted></_>
    <_>
      <rects>
        <_>
          0 0 42 1 -1.</_>
        <_>
          14 0 14 1 3.</_></rects>
      <tilted>0</tilted></_>
    <_>
      <rects>
        <_>
          0 0 54 2 -1.</_>
        <_>
          0 1 54 1 2.</_></rects>
      <tilted>0</tilted></_>
    <_>
      <rects>
        <_>
          0 1 1 6 -1.</_>
        <_>
          0 4 1 3 2.</_></rects>
      <tilted>0</tilted></_>
    <_>
      <rects>
        <_>
          0 1 1 18 -1.</_>
        <_>
          0 10 1 9 2.</_></rects>
      <tilted>0</tilted></_>
    <_>
      <rects>
        <_>
          0 1 4 19 -1.</_>
        <_>
          2 1 2 19 2.</_></rects>
      <tilted>0</tilted></_>
    <_>
      <rects>
        <_>
          0 1 10 23 -1.</_>
        <_>
          5 1 5 23 2.</_></rects>
      <tilted>0</tilted></_>
    <_>
      <rects>
        <_>
          0 2 1 12 -1.</_>
        <_>
          0 6 1 4 3.</_></rects>
      <tilted>0</tilted></_>
    <_>
      <rects>
        <_>
          0 2 4 14 -1.</_>
        <_>
          2 2 2 14 2.</_></rects>
      <tilted>0</tilted></_>
    <_>
      <rects>
        <_>
          0 2 8 22 -1.</_>
        <_>
          0 13 8 11 2.</_></rects>
      <tilted>0</tilted></_>
    <_>
      <rects>
        <_>
          0 2 72 3 -1.</_>
        <_>
          0 3 72 1 3.</_></rects>
      <tilted>0</tilted></_>
    <_>
      <rects>
        <_>
          0 3 1 14 -1.</_>
        <_>
          0 10 1 7 2.</_></rects>
      <tilted>0</tilted></_>
    <_>
      <rects>
        <_>
          0 3 1 21 -1.</_>
        <_>
          0 10 1 7 3.</_></rects>
      <tilted>0</tilted></_>
    <_>
      <rects>
        <_>
          0 4 4 12 -1.</_>
        <_>
          2 4 2 12 2.</_></rects>
      <tilted>0</tilted></_>
    <_>
      <rects>
        <_>
          0 7 1 12 -1.</_>
        <_>
          0 11 1 4 3.</_></rects>
      <tilted>0</tilted></_>
    <_>
      <rects>
        <_>
          0 8 12 12 -1.</_>
        <_>
          4 8 4 12 3.</_></rects>
      <tilted>0</tilted></_>
    <_>
      <rects>
        <_>
          0 9 14 14 -1.</_>
        <_>
          7 9 7 14 2.</_></rects>
      <tilted>0</tilted></_>
    <_>
      <rects>
        <_>
          0 11 1 9 -1.</_>
        <_>
          0 14 1 3 3.</_></rects>
      <tilted>0</tilted></_>
    <_>
      <rects>
        <_>
          0 11 60 1 -1.</_>
        <_>
          30 11 30 1 2.</_></rects>
      <tilted>0</tilted></_>
    <_>
      <rects>
        <_>
          0 12 1 6 -1.</_>
        <_>
          0 14 1 2 3.</_></rects>
      <tilted>0</tilted></_>
    <_>
      <rects>
        <_>
          0 14 1 10 -1.</_>
        <_>
          0 19 1 5 2.</_></rects>
      <tilted>0</tilted></_>
    <_>
      <rects>
        <_>
          0 14 2 9 -1.</_>
        <_>
          1 14 1 9 2.</_></rects>
      <tilted>0</tilted></_>
    <_>
      <rects>
        <_>
          0 16 1 8 -1.</_>
        <_>
          0 20 1 4 2.</_></rects>
      <tilted>0</tilted></_>
    <_>
      <rects>
        <_>
          0 16 14 8 -1.</_>
        <_>
          7 16 7 8 2.</_></rects>
      <tilted>0</tilted></_>
    <_>
      <rects>
        <_>
          0 20 4 4 -1.</_>
        <_>
          2 20 2 4 2.</_></rects>
      <tilted>0</tilted></_>
    <_>
      <rects>
        <_>
          0 23 62 1 -1.</_>
        <_>
          31 23 31 1 2.</_></rects>
      <tilted>0</tilted></_>
    <_>
      <rects>
        <_>
          1 0 4 1 -1.</_>
        <_>
          3 0 2 1 2.</_></rects>
      <tilted>0</tilted></_>
    <_>
      <rects>
        <_>
          1 0 4 2 -1.</_>
        <_>
          3 0 2 2 2.</_></rects>
      <tilted>0</tilted></_>
    <_>
      <rects>
        <_>
          1 3 62 20 -1.</_>
        <_>
          1 13 62 10 2.</_></rects>
      <tilted>0</tilted></_>
    <_>
      <rects>
        <_>
          1 13 36 2 -1.</_>
        <_>
          1 13 18 1 2.</_>
        <_>
          19 14 18 1 2.</_></rects>
      <tilted>0</tilted></_>
    <_>
      <rects>
        <_>
          1 13 44 6 -1.</_>
        <_>
          23 13 22 6 2.</_></rects>
      <tilted>0</tilted></_>
    <_>
      <rects>
        <_>
          1 22 28 2 -1.</_>
        <_>
          1 22 14 1 2.</_>
        <_>
          15 23 14 1 2.</_></rects>
      <tilted>0</tilted></_>
    <_>
      <rects>
        <_>
          1 22 48 2 -1.</_>
        <_>
          17 22 16 2 3.</_></rects>
      <tilted>0</tilted></_>
    <_>
      <rects>
        <_>
          2 0 22 2 -1.</_>
        <_>
          13 0 11 2 2.</_></rects>
      <tilted>0</tilted></_>
    <_>
      <rects>
        <_>
          2 0 51 2 -1.</_>
        <_>
          19 0 17 2 3.</_></rects>
      <tilted>0</tilted></_>
    <_>
      <rects>
        <_>
          2 0 69 10 -1.</_>
        <_>
          2 5 69 5 2.</_></rects>
      <tilted>0</tilted></_>
    <_>
      <rects>
        <_>
          2 3 36 14 -1.</_>
        <_>
          2 3 18 7 2.</_>
        <_>
          20 10 18 7 2.</_></rects>
      <tilted>0</tilted></_>
    <_>
      <rects>
        <_>
          2 10 47 12 -1.</_>
        <_>
          2 14 47 4 3.</_></rects>
      <tilted>0</tilted></_>
    <_>
      <rects>
        <_>
          2 11 69 1 -1.</_>
        <_>
          25 11 23 1 3.</_></rects>
      <tilted>0</tilted></_>
    <_>
      <rects>
        <_>
          2 17 7 4 -1.</_>
        <_>
          2 19 7 2 2.</_></rects>
      <tilted>0</tilted></_>
    <_>
      <rects>
        <_>
          2 21 6 3 -1.</_>
        <_>
          4 21 2 3 3.</_></rects>
      <tilted>0</tilted></_>
    <_>
      <rects>
        <_>
          2 22 47 2 -1.</_>
        <_>
          2 23 47 1 2.</_></rects>
      <tilted>0</tilted></_>
    <_>
      <rects>
        <_>
          3 1 48 3 -1.</_>
        <_>
          3 2 48 1 3.</_></rects>
      <tilted>0</tilted></_>
    <_>
      <rects>
        <_>
          3 3 15 16 -1.</_>
        <_>
          8 3 5 16 3.</_></rects>
      <tilted>0</tilted></_>
    <_>
      <rects>
        <_>
          3 6 43 3 -1.</_>
        <_>
          3 7 43 1 3.</_></rects>
      <tilted>0</tilted></_>
    <_>
      <rects>
        <_>
          3 8 24 2 -1.</_>
        <_>
          3 8 12 1 2.</_>
        <_>
          15 9 12 1 2.</_></rects>
      <tilted>0</tilted></_>
    <_>
      <rects>
        <_>
          3 9 34 2 -1.</_>
        <_>
          3 9 17 1 2.</_>
        <_>
          20 10 17 1 2.</_></rects>
      <tilted>0</tilted></_>
    <_>
      <rects>
        <_>
          3 16 34 3 -1.</_>
        <_>
          3 17 34 1 3.</_></rects>
      <tilted>0</tilted></_>
    <_>
      <rects>
        <_>
          3 19 66 2 -1.</_>
        <_>
          3 19 33 1 2.</_>
        <_>
          36 20 33 1 2.</_></rects>
      <tilted>0</tilted></_>
    <_>
      <rects>
        <_>
          3 19 66 2 -1.</_>
        <_>
          3 20 66 1 2.</_></rects>
      <tilted>0</tilted></_>
    <_>
      <rects>
        <_>
          3 22 42 2 -1.</_>
        <_>
          3 22 21 1 2.</_>
        <_>
          24 23 21 1 2.</_></rects>
      <tilted>0</tilted></_>
    <_>
      <rects>
        <_>
          4 0 67 8 -1.</_>
        <_>
          4 4 67 4 2.</_></rects>
      <tilted>0</tilted></_>
    <_>
      <rects>
        <_>
          4 1 32 12 -1.</_>
        <_>
          4 5 32 4 3.</_></rects>
      <tilted>0</tilted></_>
    <_>
      <rects>
        <_>
          4 11 68 2 -1.</_>
        <_>
          38 11 34 2 2.</_></rects>
      <tilted>0</tilted></_>
    <_>
      <rects>
        <_>
          4 23 22 1 -1.</_>
        <_>
          15 23 11 1 2.</_></rects>
      <tilted>0</tilted></_>
    <_>
      <rects>
        <_>
          5 0 51 24 -1.</_>
        <_>
          5 8 51 8 3.</_></rects>
      <tilted>0</tilted></_>
    <_>
      <rects>
        <_>
          5 7 44 4 -1.</_>
        <_>
          5 9 44 2 2.</_></rects>
      <tilted>0</tilted></_>
    <_>
      <rects>
        <_>
          5 10 10 14 -1.</_>
        <_>
          10 10 5 14 2.</_></rects>
      <tilted>0</tilted></_>
    <_>
      <rects>
        <_>
          5 10 44 14 -1.</_>
        <_>
          5 10 22 7 2.</_>
        <_>
          27 17 22 7 2.</_></rects>
      <tilted>0</tilted></_>
    <_>
      <rects>
        <_>
          5 23 42 1 -1.</_>
        <_>
          19 23 14 1 3.</_></rects>
      <tilted>0</tilted></_>
    <_>
      <rects>
        <_>
          6 0 10 8 -1.</_>
        <_>
          6 0 5 4 2.</_>
        <_>
          11 4 5 4 2.</_></rects>
      <tilted>0</tilted></_>
    <_>
      <rects>
        <_>
          6 0 60 9 -1.</_>
        <_>
          6 3 60 3 3.</_></rects>
      <tilted>0</tilted></_>
    <_>
      <rects>
        <_>
          6 3 38 6 -1.</_>
        <_>
          25 3 19 6 2.</_></rects>
      <tilted>0</tilted></_>
    <_>
      <rects>
        <_>
          7 3 48 2 -1.</_>
        <_>
          7 3 24 1 2.</_>
        <_>
          31 4 24 1 2.</_></rects>
      <tilted>0</tilted></_>
    <_>
      <rects>
        <_>
          7 4 64 20 -1.</_>
        <_>
          7 14 64 10 2.</_></rects>
      <tilted>0</tilted></_>
    <_>
      <rects>
        <_>
          7 17 46 1 -1.</_>
        <_>
          30 17 23 1 2.</_></rects>
      <tilted>0</tilted></_>
    <_>
      <rects>
        <_>
          8 0 27 8 -1.</_>
        <_>
          8 4 27 4 2.</_></rects>
      <tilted>0</tilted></_>
    <_>
      <rects>
        <_>
          8 2 30 18 -1.</_>
        <_>
          8 2 15 9 2.</_>
        <_>
          23 11 15 9 2.</_></rects>
      <tilted>0</tilted></_>
    <_>
      <rects>
        <_>
          8 11 24 9 -1.</_>
        <_>
          8 14 24 3 3.</_></rects>
      <tilted>0</tilted></_>
    <_>
      <rects>
        <_>
          8 14 62 10 -1.</_>
        <_>
          8 19 62 5 2.</_></rects>
      <tilted>0</tilted></_>
    <_>
      <rects>
        <_>
          9 0 63 6 -1.</_>
        <_>
          9 3 63 3 2.</_></rects>
      <tilted>0</tilted></_>
    <_>
      <rects>
        <_>
          10 3 26 2 -1.</_>
        <_>
          10 4 26 1 2.</_></rects>
      <tilted>0</tilted></_>
    <_>
      <rects>
        <_>
          10 6 36 15 -1.</_>
        <_>
          10 11 36 5 3.</_></rects>
      <tilted>0</tilted></_>
    <_>
      <rects>
        <_>
          10 6 55 8 -1.</_>
        <_>
          10 10 55 4 2.</_></rects>
      <tilted>0</tilted></_>
    <_>
      <rects>
        <_>
          10 7 44 2 -1.</_>
        <_>
          10 8 44 1 2.</_></rects>
      <tilted>0</tilted></_>
    <_>
      <rects>
        <_>
          10 21 58 3 -1.</_>
        <_>
          10 22 58 1 3.</_></rects>
      <tilted>0</tilted></_>
    <_>
      <rects>
        <_>
          11 5 9 12 -1.</_>
        <_>
          14 5 3 12 3.</_></rects>
      <tilted>0</tilted></_>
    <_>
      <rects>
        <_>
          11 9 5 6 -1.</_>
        <_>
          11 12 5 3 2.</_></rects>
      <tilted>0</tilted></_>
    <_>
      <rects>
        <_>
          11 18 52 3 -1.</_>
        <_>
          11 19 52 1 3.</_></rects>
      <tilted>0</tilted></_>
    <_>
      <rects>
        <_>
          12 6 36 3 -1.</_>
        <_>
          12 7 36 1 3.</_></rects>
      <tilted>0</tilted></_>
    <_>
      <rects>
        <_>
          13 0 54 1 -1.</_>
        <_>
          40 0 27 1 2.</_></rects>
      <tilted>0</tilted></_>
    <_>
      <rects>
        <_>
          13 5 31 3 -1.</_>
        <_>
          13 6 31 1 3.</_></rects>
      <tilted>0</tilted></_>
    <_>
      <rects>
        <_>
          13 9 47 15 -1.</_>
        <_>
          13 14 47 5 3.</_></rects>
      <tilted>0</tilted></_>
    <_>
      <rects>
        <_>
          13 17 41 3 -1.</_>
        <_>
          13 18 41 1 3.</_></rects>
      <tilted>0</tilted></_>
    <_>
      <rects>
        <_>
          13 20 45 3 -1.</_>
        <_>
          13 21 45 1 3.</_></rects>
      <tilted>0</tilted></_>
    <_>
      <rects>
        <_>
          13 22 3 1 -1.</_>
        <_>
          14 22 1 1 3.</_></rects>
      <tilted>0</tilted></_>
    <_>
      <rects>
        <_>
          14 8 31 3 -1.</_>
        <_>
          14 9 31 1 3.</_></rects>
      <tilted>0</tilted></_>
    <_>
      <rects>
        <_>
          14 16 34 8 -1.</_>
        <_>
          14 20 34 4 2.</_></rects>
      <tilted>0</tilted></_>
    <_>
      <rects>
        <_>
          15 0 33 4 -1.</_>
        <_>
          15 2 33 2 2.</_></rects>
      <tilted>0</tilted></_>
    <_>
      <rects>
        <_>
          15 0 44 10 -1.</_>
        <_>
          15 5 44 5 2.</_></rects>
      <tilted>0</tilted></_>
    <_>
      <rects>
        <_>
          15 1 54 6 -1.</_>
        <_>
          15 1 27 3 2.</_>
        <_>
          42 4 27 3 2.</_></rects>
      <tilted>0</tilted></_>
    <_>
      <rects>
        <_>
          15 7 48 7 -1.</_>
        <_>
          39 7 24 7 2.</_></rects>
      <tilted>0</tilted></_>
    <_>
      <rects>
        <_>
          15 21 50 2 -1.</_>
        <_>
          15 21 25 1 2.</_>
        <_>
          40 22 25 1 2.</_></rects>
      <tilted>0</tilted></_>
    <_>
      <rects>
        <_>
          16 0 31 4 -1.</_>
        <_>
          16 2 31 2 2.</_></rects>
      <tilted>0</tilted></_>
    <_>
      <rects>
        <_>
          16 3 35 18 -1.</_>
        <_>
          16 12 35 9 2.</_></rects>
      <tilted>0</tilted></_>
    <_>
      <rects>
        <_>
          16 8 24 2 -1.</_>
        <_>
          16 9 24 1 2.</_></rects>
      <tilted>0</tilted></_>
    <_>
      <rects>
        <_>
          16 9 16 8 -1.</_>
        <_>
          24 9 8 8 2.</_></rects>
      <tilted>0</tilted></_>
    <_>
      <rects>
        <_>
          16 9 12 3 -1.</_>
        <_>
          16 10 12 1 3.</_></rects>
      <tilted>0</tilted></_>
    <_>
      <rects>
        <_>
          16 14 18 3 -1.</_>
        <_>
          22 14 6 3 3.</_></rects>
      <tilted>0</tilted></_>
    <_>
      <rects>
        <_>
          16 23 40 1 -1.</_>
        <_>
          36 23 20 1 2.</_></rects>
      <tilted>0</tilted></_>
    <_>
      <rects>
        <_>
          17 6 37 8 -1.</_>
        <_>
          17 10 37 4 2.</_></rects>
      <tilted>0</tilted></_>
    <_>
      <rects>
        <_>
          18 6 38 3 -1.</_>
        <_>
          18 7 38 1 3.</_></rects>
      <tilted>0</tilted></_>
    <_>
      <rects>
        <_>
          18 8 11 3 -1.</_>
        <_>
          18 9 11 1 3.</_></rects>
      <tilted>0</tilted></_>
    <_>
      <rects>
        <_>
          18 16 15 2 -1.</_>
        <_>
          18 17 15 1 2.</_></rects>
      <tilted>0</tilted></_>
    <_>
      <rects>
        <_>
          18 20 3 3 -1.</_>
        <_>
          19 20 1 3 3.</_></rects>
      <tilted>0</tilted></_>
    <_>
      <rects>
        <_>
          18 22 6 2 -1.</_>
        <_>
          20 22 2 2 3.</_></rects>
      <tilted>0</tilted></_>
    <_>
      <rects>
        <_>
          19 0 42 1 -1.</_>
        <_>
          33 0 14 1 3.</_></rects>
      <tilted>0</tilted></_>
    <_>
      <rects>
        <_>
          19 0 43 6 -1.</_>
        <_>
          19 2 43 2 3.</_></rects>
      <tilted>0</tilted></_>
    <_>
      <rects>
        <_>
          19 7 8 3 -1.</_>
        <_>
          19 8 8 1 3.</_></rects>
      <tilted>0</tilted></_>
    <_>
      <rects>
        <_>
          19 16 22 2 -1.</_>
        <_>
          19 16 11 1 2.</_>
        <_>
          30 17 11 1 2.</_></rects>
      <tilted>0</tilted></_>
    <_>
      <rects>
        <_>
          19 21 33 2 -1.</_>
        <_>
          19 22 33 1 2.</_></rects>
      <tilted>0</tilted></_>
    <_>
      <rects>
        <_>
          20 0 21 3 -1.</_>
        <_>
          27 0 7 3 3.</_></rects>
      <tilted>0</tilted></_>
    <_>
      <rects>
        <_>
          20 2 11 12 -1.</_>
        <_>
          20 6 11 4 3.</_></rects>
      <tilted>0</tilted></_>
    <_>
      <rects>
        <_>
          20 4 15 3 -1.</_>
        <_>
          20 5 15 1 3.</_></rects>
      <tilted>0</tilted></_>
    <_>
      <rects>
        <_>
          21 0 11 22 -1.</_>
        <_>
          21 11 11 11 2.</_></rects>
      <tilted>0</tilted></_>
    <_>
      <rects>
        <_>
          21 1 46 4 -1.</_>
        <_>
          44 1 23 4 2.</_></rects>
      <tilted>0</tilted></_>
    <_>
      <rects>
        <_>
          21 3 9 9 -1.</_>
        <_>
          21 6 9 3 3.</_></rects>
      <tilted>0</tilted></_>
    <_>
      <rects>
        <_>
          21 7 32 3 -1.</_>
        <_>
          21 8 32 1 3.</_></rects>
      <tilted>0</tilted></_>
    <_>
      <rects>
        <_>
          21 14 12 10 -1.</_>
        <_>
          21 19 12 5 2.</_></rects>
      <tilted>0</tilted></_>
    <_>
      <rects>
        <_>
          21 21 22 3 -1.</_>
        <_>
          21 22 22 1 3.</_></rects>
      <tilted>0</tilted></_>
    <_>
      <rects>
        <_>
          21 23 48 1 -1.</_>
        <_>
          37 23 16 1 3.</_></rects>
      <tilted>0</tilted></_>
    <_>
      <rects>
        <_>
          22 0 13 15 -1.</_>
        <_>
          22 5 13 5 3.</_></rects>
      <tilted>0</tilted></_>
    <_>
      <rects>
        <_>
          22 0 43 12 -1.</_>
        <_>
          22 6 43 6 2.</_></rects>
      <tilted>0</tilted></_>
    <_>
      <rects>
        <_>
          22 2 24 10 -1.</_>
        <_>
          22 2 12 5 2.</_>
        <_>
          34 7 12 5 2.</_></rects>
      <tilted>0</tilted></_>
    <_>
      <rects>
        <_>
          22 19 2 5 -1.</_>
        <_>
          23 19 1 5 2.</_></rects>
      <tilted>0</tilted></_>
    <_>
      <rects>
        <_>
          23 0 47 24 -1.</_>
        <_>
          23 8 47 8 3.</_></rects>
      <tilted>0</tilted></_>
    <_>
      <rects>
        <_>
          23 22 24 2 -1.</_>
        <_>
          23 23 24 1 2.</_></rects>
      <tilted>0</tilted></_>
    <_>
      <rects>
        <_>
          24 0 21 4 -1.</_>
        <_>
          24 2 21 2 2.</_></rects>
      <tilted>0</tilted></_>
    <_>
      <rects>
        <_>
          24 1 48 12 -1.</_>
        <_>
          24 1 24 6 2.</_>
        <_>
          48 7 24 6 2.</_></rects>
      <tilted>0</tilted></_>
    <_>
      <rects>
        <_>
          24 16 34 2 -1.</_>
        <_>
          24 16 17 1 2.</_>
        <_>
          41 17 17 1 2.</_></rects>
      <tilted>0</tilted></_>
    <_>
      <rects>
        <_>
          24 16 27 8 -1.</_>
        <_>
          24 20 27 4 2.</_></rects>
      <tilted>0</tilted></_>
    <_>
      <rects>
        <_>
          24 17 25 3 -1.</_>
        <_>
          24 18 25 1 3.</_></rects>
      <tilted>0</tilted></_>
    <_>
      <rects>
        <_>
          25 5 11 16 -1.</_>
        <_>
          25 13 11 8 2.</_></rects>
      <tilted>0</tilted></_>
    <_>
      <rects>
        <_>
          25 6 4 8 -1.</_>
        <_>
          27 6 2 8 2.</_></rects>
      <tilted>0</tilted></_>
    <_>
      <rects>
        <_>
          25 17 36 3 -1.</_>
        <_>
          25 18 36 1 3.</_></rects>
      <tilted>0</tilted></_>
    <_>
      <rects>
        <_>
          26 0 12 6 -1.</_>
        <_>
          26 2 12 2 3.</_></rects>
      <tilted>0</tilted></_>
    <_>
      <rects>
        <_>
          26 1 12 4 -1.</_>
        <_>
          32 1 6 4 2.</_></rects>
      <tilted>0</tilted></_>
    <_>
      <rects>
        <_>
          26 1 38 6 -1.</_>
        <_>
          26 1 19 3 2.</_>
        <_>
          45 4 19 3 2.</_></rects>
      <tilted>0</tilted></_>
    <_>
      <rects>
        <_>
          26 2 21 3 -1.</_>
        <_>
          26 3 21 1 3.</_></rects>
      <tilted>0</tilted></_>
    <_>
      <rects>
        <_>
          26 13 32 3 -1.</_>
        <_>
          26 14 32 1 3.</_></rects>
      <tilted>0</tilted></_>
    <_>
      <rects>
        <_>
          27 0 3 2 -1.</_>
        <_>
          28 0 1 2 3.</_></rects>
      <tilted>0</tilted></_>
    <_>
      <rects>
        <_>
          27 0 20 24 -1.</_>
        <_>
          27 12 20 12 2.</_></rects>
      <tilted>0</tilted></_>
    <_>
      <rects>
        <_>
          27 9 15 3 -1.</_>
        <_>
          27 10 15 1 3.</_></rects>
      <tilted>0</tilted></_>
    <_>
      <rects>
        <_>
          28 0 24 1 -1.</_>
        <_>
          40 0 12 1 2.</_></rects>
      <tilted>0</tilted></_>
    <_>
      <rects>
        <_>
          28 1 36 2 -1.</_>
        <_>
          40 1 12 2 3.</_></rects>
      <tilted>0</tilted></_>
    <_>
      <rects>
        <_>
          28 2 30 12 -1.</_>
        <_>
          28 6 30 4 3.</_></rects>
      <tilted>0</tilted></_>
    <_>
      <rects>
        <_>
          29 10 9 6 -1.</_>
        <_>
          32 10 3 6 3.</_></rects>
      <tilted>0</tilted></_>
    <_>
      <rects>
        <_>
          29 14 38 2 -1.</_>
        <_>
          29 14 19 1 2.</_>
        <_>
          48 15 19 1 2.</_></rects>
      <tilted>0</tilted></_>
    <_>
      <rects>
        <_>
          29 23 18 1 -1.</_>
        <_>
          35 23 6 1 3.</_></rects>
      <tilted>0</tilted></_>
    <_>
      <rects>
        <_>
          31 0 33 2 -1.</_>
        <_>
          42 0 11 2 3.</_></rects>
      <tilted>0</tilted></_>
    <_>
      <rects>
        <_>
          31 22 6 2 -1.</_>
        <_>
          33 22 2 2 3.</_></rects>
      <tilted>0</tilted></_>
    <_>
      <rects>
        <_>
          32 9 15 2 -1.</_>
        <_>
          32 10 15 1 2.</_></rects>
      <tilted>0</tilted></_>
    <_>
      <rects>
        <_>
          32 12 7 3 -1.</_>
        <_>
          32 13 7 1 3.</_></rects>
      <tilted>0</tilted></_>
    <_>
      <rects>
        <_>
          32 23 15 1 -1.</_>
        <_>
          37 23 5 1 3.</_></rects>
      <tilted>0</tilted></_>
    <_>
      <rects>
        <_>
          33 0 34 2 -1.</_>
        <_>
          33 0 17 1 2.</_>
        <_>
          50 1 17 1 2.</_></rects>
      <tilted>0</tilted></_>
    <_>
      <rects>
        <_>
          33 6 18 3 -1.</_>
        <_>
          33 7 18 1 3.</_></rects>
      <tilted>0</tilted></_>
    <_>
      <rects>
        <_>
          34 9 3 3 -1.</_>
        <_>
          34 10 3 1 3.</_></rects>
      <tilted>0</tilted></_>
    <_>
      <rects>
        <_>
          34 9 36 2 -1.</_>
        <_>
          34 9 18 1 2.</_>
        <_>
          52 10 18 1 2.</_></rects>
      <tilted>0</tilted></_>
    <_>
      <rects>
        <_>
          34 21 6 3 -1.</_>
        <_>
          36 21 2 3 3.</_></rects>
      <tilted>0</tilted></_>
    <_>
      <rects>
        <_>
          34 23 36 1 -1.</_>
        <_>
          46 23 12 1 3.</_></rects>
      <tilted>0</tilted></_>
    <_>
      <rects>
        <_>
          35 2 3 1 -1.</_>
        <_>
          36 2 1 1 3.</_></rects>
      <tilted>0</tilted></_>
    <_>
      <rects>
        <_>
          35 3 6 4 -1.</_>
        <_>
          38 3 3 4 2.</_></rects>
      <tilted>0</tilted></_>
    <_>
      <rects>
        <_>
          35 13 3 7 -1.</_>
        <_>
          36 13 1 7 3.</_></rects>
      <tilted>0</tilted></_>
    <_>
      <rects>
        <_>
          35 21 36 2 -1.</_>
        <_>
          35 21 18 1 2.</_>
        <_>
          53 22 18 1 2.</_></rects>
      <tilted>0</tilted></_>
    <_>
      <rects>
        <_>
          36 12 5 3 -1.</_>
        <_>
          36 13 5 1 3.</_></rects>
      <tilted>0</tilted></_>
    <_>
      <rects>
        <_>
          37 1 6 5 -1.</_>
        <_>
          39 1 2 5 3.</_></rects>
      <tilted>0</tilted></_>
    <_>
      <rects>
        <_>
          37 15 12 2 -1.</_>
        <_>
          37 15 6 1 2.</_>
        <_>
          43 16 6 1 2.</_></rects>
      <tilted>0</tilted></_>
    <_>
      <rects>
        <_>
          37 23 14 1 -1.</_>
        <_>
          44 23 7 1 2.</_></rects>
      <tilted>0</tilted></_>
    <_>
      <rects>
        <_>
          38 0 33 1 -1.</_>
        <_>
          49 0 11 1 3.</_></rects>
      <tilted>0</tilted></_>
    <_>
      <rects>
        <_>
          38 2 34 8 -1.</_>
        <_>
          55 2 17 8 2.</_></rects>
      <tilted>0</tilted></_>
    <_>
      <rects>
        <_>
          38 6 9 2 -1.</_>
        <_>
          41 6 3 2 3.</_></rects>
      <tilted>0</tilted></_>
    <_>
      <rects>
        <_>
          38 8 24 16 -1.</_>
        <_>
          38 8 12 8 2.</_>
        <_>
          50 16 12 8 2.</_></rects>
      <tilted>0</tilted></_>
    <_>
      <rects>
        <_>
          38 14 24 10 -1.</_>
        <_>
          38 19 24 5 2.</_></rects>
      <tilted>0</tilted></_>
    <_>
      <rects>
        <_>
          38 20 3 3 -1.</_>
        <_>
          39 20 1 3 3.</_></rects>
      <tilted>0</tilted></_>
    <_>
      <rects>
        <_>
          39 5 26 4 -1.</_>
        <_>
          39 5 13 2 2.</_>
        <_>
          52 7 13 2 2.</_></rects>
      <tilted>0</tilted></_>
    <_>
      <rects>
        <_>
          39 13 10 2 -1.</_>
        <_>
          44 13 5 2 2.</_></rects>
      <tilted>0</tilted></_>
    <_>
      <rects>
        <_>
          40 0 1 22 -1.</_>
        <_>
          40 11 1 11 2.</_></rects>
      <tilted>0</tilted></_>
    <_>
      <rects>
        <_>
          40 0 9 1 -1.</_>
        <_>
          43 0 3 1 3.</_></rects>
      <tilted>0</tilted></_>
    <_>
      <rects>
        <_>
          40 0 25 9 -1.</_>
        <_>
          40 3 25 3 3.</_></rects>
      <tilted>0</tilted></_>
    <_>
      <rects>
        <_>
          40 12 32 7 -1.</_>
        <_>
          56 12 16 7 2.</_></rects>
      <tilted>0</tilted></_>
    <_>
      <rects>
        <_>
          40 16 16 3 -1.</_>
        <_>
          40 17 16 1 3.</_></rects>
      <tilted>0</tilted></_>
    <_>
      <rects>
        <_>
          41 0 24 1 -1.</_>
        <_>
          49 0 8 1 3.</_></rects>
      <tilted>0</tilted></_>
    <_>
      <rects>
        <_>
          41 6 12 2 -1.</_>
        <_>
          41 6 6 1 2.</_>
        <_>
          47 7 6 1 2.</_></rects>
      <tilted>0</tilted></_>
    <_>
      <rects>
        <_>
          41 13 15 9 -1.</_>
        <_>
          41 16 15 3 3.</_></rects>
      <tilted>0</tilted></_>
    <_>
      <rects>
        <_>
          41 22 3 2 -1.</_>
        <_>
          42 22 1 2 3.</_></rects>
      <tilted>0</tilted></_>
    <_>
      <rects>
        <_>
          42 0 6 1 -1.</_>
        <_>
          44 0 2 1 3.</_></rects>
      <tilted>0</tilted></_>
    <_>
      <rects>
        <_>
          42 0 11 12 -1.</_>
        <_>
          42 6 11 6 2.</_></rects>
      <tilted>0</tilted></_>
    <_>
      <rects>
        <_>
          42 8 30 10 -1.</_>
        <_>
          57 8 15 10 2.</_></rects>
      <tilted>0</tilted></_>
    <_>
      <rects>
        <_>
          42 9 30 2 -1.</_>
        <_>
          42 9 15 1 2.</_>
        <_>
          57 10 15 1 2.</_></rects>
      <tilted>0</tilted></_>
    <_>
      <rects>
        <_>
          43 3 4 14 -1.</_>
        <_>
          45 3 2 14 2.</_></rects>
      <tilted>0</tilted></_>
    <_>
      <rects>
        <_>
          43 4 5 2 -1.</_>
        <_>
          43 5 5 1 2.</_></rects>
      <tilted>0</tilted></_>
    <_>
      <rects>
        <_>
          43 7 24 2 -1.</_>
        <_>
          43 7 12 1 2.</_>
        <_>
          55 8 12 1 2.</_></rects>
      <tilted>0</tilted></_>
    <_>
      <rects>
        <_>
          44 4 6 14 -1.</_>
        <_>
          47 4 3 14 2.</_></rects>
      <tilted>0</tilted></_>
    <_>
      <rects>
        <_>
          44 22 26 2 -1.</_>
        <_>
          57 22 13 2 2.</_></rects>
      <tilted>0</tilted></_>
    <_>
      <rects>
        <_>
          45 8 6 16 -1.</_>
        <_>
          45 16 6 8 2.</_></rects>
      <tilted>0</tilted></_>
    <_>
      <rects>
        <_>
          46 0 18 18 -1.</_>
        <_>
          46 9 18 9 2.</_></rects>
      <tilted>0</tilted></_>
    <_>
      <rects>
        <_>
          46 2 18 16 -1.</_>
        <_>
          46 2 9 8 2.</_>
        <_>
          55 10 9 8 2.</_></rects>
      <tilted>0</tilted></_>
    <_>
      <rects>
        <_>
          46 2 22 4 -1.</_>
        <_>
          46 2 11 2 2.</_>
        <_>
          57 4 11 2 2.</_></rects>
      <tilted>0</tilted></_>
    <_>
      <rects>
        <_>
          47 20 6 3 -1.</_>
        <_>
          49 20 2 3 3.</_></rects>
      <tilted>0</tilted></_>
    <_>
      <rects>
        <_>
          48 9 18 10 -1.</_>
        <_>
          54 9 6 10 3.</_></rects>
      <tilted>0</tilted></_>
    <_>
      <rects>
        <_>
          48 23 12 1 -1.</_>
        <_>
          52 23 4 1 3.</_></rects>
      <tilted>0</tilted></_>
    <_>
      <rects>
        <_>
          49 0 3 2 -1.</_>
        <_>
          50 0 1 2 3.</_></rects>
      <tilted>0</tilted></_>
    <_>
      <rects>
        <_>
          49 1 16 12 -1.</_>
        <_>
          49 5 16 4 3.</_></rects>
      <tilted>0</tilted></_>
    <_>
      <rects>
        <_>
          49 10 20 10 -1.</_>
        <_>
          49 10 10 5 2.</_>
        <_>
          59 15 10 5 2.</_></rects>
      <tilted>0</tilted></_>
    <_>
      <rects>
        <_>
          50 10 3 3 -1.</_>
        <_>
          51 10 1 3 3.</_></rects>
      <tilted>0</tilted></_>
    <_>
      <rects>
        <_>
          50 22 2 2 -1.</_>
        <_>
          51 22 1 2 2.</_></rects>
      <tilted>0</tilted></_>
    <_>
      <rects>
        <_>
          51 22 20 2 -1.</_>
        <_>
          61 22 10 2 2.</_></rects>
      <tilted>0</tilted></_>
    <_>
      <rects>
        <_>
          53 10 6 5 -1.</_>
        <_>
          55 10 2 5 3.</_></rects>
      <tilted>0</tilted></_>
    <_>
      <rects>
        <_>
          54 0 2 10 -1.</_>
        <_>
          54 5 2 5 2.</_></rects>
      <tilted>0</tilted></_>
    <_>
      <rects>
        <_>
          54 1 9 1 -1.</_>
        <_>
          57 1 3 1 3.</_></rects>
      <tilted>0</tilted></_>
    <_>
      <rects>
        <_>
          55 0 14 1 -1.</_>
        <_>
          62 0 7 1 2.</_></rects>
      <tilted>0</tilted></_>
    <_>
      <rects>
        <_>
          55 17 5 6 -1.</_>
        <_>
          55 20 5 3 2.</_></rects>
      <tilted>0</tilted></_>
    <_>
      <rects>
        <_>
          58 2 10 8 -1.</_>
        <_>
          58 2 5 4 2.</_>
        <_>
          63 6 5 4 2.</_></rects>
      <tilted>0</tilted></_>
    <_>
      <rects>
        <_>
          59 0 2 1 -1.</_>
        <_>
          60 0 1 1 2.</_></rects>
      <tilted>0</tilted></_>
    <_>
      <rects>
        <_>
          59 0 9 20 -1.</_>
        <_>
          62 0 3 20 3.</_></rects>
      <tilted>0</tilted></_>
    <_>
      <rects>
        <_>
          59 5 3 9 -1.</_>
        <_>
          60 5 1 9 3.</_></rects>
      <tilted>0</tilted></_>
    <_>
      <rects>
        <_>
          59 21 2 3 -1.</_>
        <_>
          60 21 1 3 2.</_></rects>
      <tilted>0</tilted></_>
    <_>
      <rects>
        <_>
          60 5 12 2 -1.</_>
        <_>
          66 5 6 2 2.</_></rects>
      <tilted>0</tilted></_>
    <_>
      <rects>
        <_>
          60 7 3 7 -1.</_>
        <_>
          61 7 1 7 3.</_></rects>
      <tilted>0</tilted></_>
    <_>
      <rects>
        <_>
          62 2 10 2 -1.</_>
        <_>
          67 2 5 2 2.</_></rects>
      <tilted>0</tilted></_>
    <_>
      <rects>
        <_>
          62 23 6 1 -1.</_>
        <_>
          65 23 3 1 2.</_></rects>
      <tilted>0</tilted></_>
    <_>
      <rects>
        <_>
          63 1 4 2 -1.</_>
        <_>
          65 1 2 2 2.</_></rects>
      <tilted>0</tilted></_>
    <_>
      <rects>
        <_>
          63 2 9 18 -1.</_>
        <_>
          66 2 3 18 3.</_></rects>
      <tilted>0</tilted></_>
    <_>
      <rects>
        <_>
          63 8 4 15 -1.</_>
        <_>
          65 8 2 15 2.</_></rects>
      <tilted>0</tilted></_>
    <_>
      <rects>
        <_>
          66 4 6 4 -1.</_>
        <_>
          69 4 3 4 2.</_></rects>
      <tilted>0</tilted></_>
    <_>
      <rects>
        <_>
          67 4 3 6 -1.</_>
        <_>
          67 7 3 3 2.</_></rects>
      <tilted>0</tilted></_>
    <_>
      <rects>
        <_>
          68 1 4 18 -1.</_>
        <_>
          70 1 2 18 2.</_></rects>
      <tilted>0</tilted></_>
    <_>
      <rects>
        <_>
          68 3 4 17 -1.</_>
        <_>
          70 3 2 17 2.</_></rects>
      <tilted>0</tilted></_>
    <_>
      <rects>
        <_>
          68 3 4 18 -1.</_>
        <_>
          70 3 2 18 2.</_></rects>
      <tilted>0</tilted></_>
    <_>
      <rects>
        <_>
          68 4 4 15 -1.</_>
        <_>
          70 4 2 15 2.</_></rects>
      <tilted>0</tilted></_>
    <_>
      <rects>
        <_>
          68 21 4 2 -1.</_>
        <_>
          70 21 2 2 2.</_></rects>
      <tilted>0</tilted></_>
    <_>
      <rects>
        <_>
          70 12 2 3 -1.</_>
        <_>
          71 12 1 3 2.</_></rects>
      <tilted>0</tilted></_>
    <_>
      <rects>
        <_>
          70 19 2 3 -1.</_>
        <_>
          71 19 1 3 2.</_></rects>
      <tilted>0</tilted></_>
    <_>
      <rects>
        <_>
          71 0 1 24 -1.</_>
        <_>
          71 8 1 8 3.</_></rects>
      <tilted>0</tilted></_>
    <_>
      <rects>
        <_>
          71 0 1 24 -1.</_>
        <_>
          71 12 1 12 2.</_></rects>
      <tilted>0</tilted></_>
    <_>
      <rects>
        <_>
          71 1 1 6 -1.</_>
        <_>
          71 4 1 3 2.</_></rects>
      <tilted>0</tilted></_>
    <_>
      <rects>
        <_>
          71 1 1 15 -1.</_>
        <_>
          71 6 1 5 3.</_></rects>
      <tilted>0</tilted></_>
    <_>
      <rects>
        <_>
          71 1 1 12 -1.</_>
        <_>
          71 7 1 6 2.</_></rects>
      <tilted>0</tilted></_>
    <_>
      <rects>
        <_>
          71 6 1 15 -1.</_>
        <_>
          71 11 1 5 3.</_></rects>
      <tilted>0</tilted></_>
    <_>
      <rects>
        <_>
          71 12 1 12 -1.</_>
        <_>
          71 18 1 6 2.</_></rects>
      <tilted>0</tilted></_>
    <_>
      <rects>
        <_>
          71 13 1 10 -1.</_>
        <_>
          71 18 1 5 2.</_></rects>
      <tilted>0</tilted></_>
    <_>
      <rects>
        <_>
          71 17 1 6 -1.</_>
        <_>
          71 20 1 3 2.</_></rects>
      <tilted>0</tilted></_></features></cascade>
</opencv_storage>
